<?xml version="1.0"?>
<opencv_storage>
<stage8>
  <maxWeakCount>78</maxWeakCount>
  <stageThreshold>-1.5228116512298584e+00</stageThreshold>
  <weakClassifiers>
    <_>
      <internalNodes>
        0 -1 125 1.6210934519767761e-01</internalNodes>
      <leafValues>
        -7.2407293319702148e-01 -5.0615113973617554e-01</leafValues></_>
    <_>
      <internalNodes>
        0 -1 813 2.9763270169496536e-02</internalNodes>
      <leafValues>
        -2.1826396882534027e-01 7.3721341788768768e-02</leafValues></_>
    <_>
      <internalNodes>
        0 -1 6359 -3.6484245210886002e-03</internalNodes>
      <leafValues>
        -3.1111076474189758e-01 6.5162561833858490e-02</leafValues></_>
    <_>
      <internalNodes>
        0 -1 6480 8.2722445949912071e-04</internalNodes>
      <leafValues>
        1.7575013637542725e-01 -1.5131926536560059e-01</leafValues></_>
    <_>
      <internalNodes>
        0 -1 4026 -1.1325714149279520e-04</internalNodes>
      <leafValues>
        5.2961908280849457e-02 -2.0113673806190491e-01</leafValues></_>
    <_>
      <internalNodes>
        0 -1 1199 2.3229923099279404e-02</internalNodes>
      <leafValues>
        -2.5894828140735626e-02 3.8915735483169556e-01</leafValues></_>
    <_>
      <internalNodes>
        0 -1 10925 -2.6440774090588093e-03</internalNodes>
      <leafValues>
        2.4062110483646393e-01 -6.4745932817459106e-02</leafValues></_>
    <_>
      <internalNodes>
        0 -1 9466 1.3791527599096298e-02</internalNodes>
      <leafValues>
        -7.0666544139385223e-02 1.9940470159053802e-01</leafValues></_>
    <_>
      <internalNodes>
        0 -1 8889 -3.5417075268924236e-03</internalNodes>
      <leafValues>
        -1.7888028919696808e-01 1.0617968440055847e-01</leafValues></_>
    <_>
      <internalNodes>
        0 -1 289 7.2113787755370140e-03</internalNodes>
      <leafValues>
        -8.6189225316047668e-02 1.7239274084568024e-01</leafValues></_>
    <_>
      <internalNodes>
        0 -1 514 -3.6416180431842804e-02</internalNodes>
      <leafValues>
        1.4764566719532013e-01 -1.2050146609544754e-01</leafValues></_>
    <_>
      <internalNodes>
        0 -1 1678 -7.5674722902476788e-03</internalNodes>
      <leafValues>
        2.6057073473930359e-01 -5.4960958659648895e-02</leafValues></_>
    <_>
      <internalNodes>
        0 -1 5339 1.4567379839718342e-03</internalNodes>
      <leafValues>
        9.3625336885452271e-02 -1.7872646450996399e-01</leafValues></_>
    <_>
      <internalNodes>
        0 -1 8422 1.0749818757176399e-03</internalNodes>
      <leafValues>
        7.7157743275165558e-02 -1.8450054526329041e-01</leafValues></_>
    <_>
      <internalNodes>
        0 -1 7518 1.2930449843406677e-01</internalNodes>
      <leafValues>
        -7.4156872928142548e-02 2.2781485319137573e-01</leafValues></_>
    <_>
      <internalNodes>
        0 -1 8785 9.8594222217798233e-03</internalNodes>
      <leafValues>
        6.5862312912940979e-02 -2.4018187820911407e-01</leafValues></_>
    <_>
      <internalNodes>
        0 -1 10144 -2.8517944738268852e-03</internalNodes>
      <leafValues>
        1.7715078592300415e-01 -8.9879162609577179e-02</leafValues></_>
    <_>
      <internalNodes>
        0 -1 5472 3.8721859455108643e-02</internalNodes>
      <leafValues>
        -2.3800164461135864e-02 5.8829694986343384e-01</leafValues></_>
    <_>
      <internalNodes>
        0 -1 5118 -1.5135351568460464e-02</internalNodes>
      <leafValues>
        -3.6572083830833435e-01 3.7661969661712646e-02</leafValues></_>
    <_>
      <internalNodes>
        0 -1 768 5.4960357956588268e-03</internalNodes>
      <leafValues>
        -6.3217706978321075e-02 2.3950350284576416e-01</leafValues></_>
    <_>
      <internalNodes>
        0 -1 1420 1.6389384865760803e-01</internalNodes>
      <leafValues>
        2.1914198994636536e-02 -6.1817914247512817e-01</leafValues></_>
    <_>
      <internalNodes>
        0 -1 1001 4.9401670694351196e-03</internalNodes>
      <leafValues>
        -8.6275205016136169e-02 1.6549994051456451e-01</leafValues></_>
    <_>
      <internalNodes>
        0 -1 7117 8.0306995660066605e-03</internalNodes>
      <leafValues>
        3.6919038742780685e-02 -3.5707500576972961e-01</leafValues></_>
    <_>
      <internalNodes>
        0 -1 1996 8.7234992533922195e-03</internalNodes>
      <leafValues>
        6.1435487121343613e-02 -2.1376417577266693e-01</leafValues></_>
    <_>
      <internalNodes>
        0 -1 5697 1.0280502028763294e-02</internalNodes>
      <leafValues>
        -9.7041346132755280e-02 1.6162762045860291e-01</leafValues></_>
    <_>
      <internalNodes>
        0 -1 5695 -2.5208927690982819e-02</internalNodes>
      <leafValues>
        2.4218955636024475e-01 -7.0604182779788971e-02</leafValues></_>
    <_>
      <internalNodes>
        0 -1 7485 2.3539908230304718e-02</internalNodes>
      <leafValues>
        -9.5568120479583740e-02 1.5807114541530609e-01</leafValues></_>
    <_>
      <internalNodes>
        0 -1 6481 1.2084771879017353e-04</internalNodes>
      <leafValues>
        -1.0787884891033173e-01 1.5870448946952820e-01</leafValues></_>
    <_>
      <internalNodes>
        0 -1 6858 -1.3054311275482178e-01</internalNodes>
      <leafValues>
        -3.2316100597381592e-01 4.0687683969736099e-02</leafValues></_>
    <_>
      <internalNodes>
        0 -1 6354 1.3119567884132266e-03</internalNodes>
      <leafValues>
        8.1113234162330627e-02 -1.8302860856056213e-01</leafValues></_>
    <_>
      <internalNodes>
        0 -1 2522 3.4061080217361450e-01</internalNodes>
      <leafValues>
        -6.5717488527297974e-02 2.5278604030609131e-01</leafValues></_>
    <_>
      <internalNodes>
        0 -1 3425 2.4669793248176575e-01</internalNodes>
      <leafValues>
        2.9265843331813812e-02 -5.3416460752487183e-01</leafValues></_>
    <_>
      <internalNodes>
        0 -1 8250 -5.9709157794713974e-03</internalNodes>
      <leafValues>
        1.5187975764274597e-01 -9.2424288392066956e-02</leafValues></_>
    <_>
      <internalNodes>
        0 -1 6524 5.2227653563022614e-02</internalNodes>
      <leafValues>
        -5.9643082320690155e-02 2.9163241386413574e-01</leafValues></_>
    <_>
      <internalNodes>
        0 -1 6608 2.4056173861026764e-02</internalNodes>
      <leafValues>
        -3.1102832406759262e-02 5.1939094066619873e-01</leafValues></_>
    <_>
      <internalNodes>
        0 -1 11079 4.4029364362359047e-03</internalNodes>
      <leafValues>
        -6.2054079025983810e-02 2.2498933970928192e-01</leafValues></_>
    <_>
      <internalNodes>
        0 -1 10667 -6.6437842324376106e-03</internalNodes>
      <leafValues>
        3.0233785510063171e-01 -4.1603397578001022e-02</leafValues></_>
    <_>
      <internalNodes>
        0 -1 1911 4.5225424692034721e-03</internalNodes>
      <leafValues>
        4.6900112181901932e-02 -2.6987993717193604e-01</leafValues></_>
    <_>
      <internalNodes>
        0 -1 7591 8.7442025542259216e-02</internalNodes>
      <leafValues>
        1.5545536763966084e-02 -6.9993978738784790e-01</leafValues></_>
    <_>
      <internalNodes>
        0 -1 2169 8.6034014821052551e-03</internalNodes>
      <leafValues>
        -9.1372206807136536e-02 1.5229922533035278e-01</leafValues></_>
    <_>
      <internalNodes>
        0 -1 8856 -7.7956430613994598e-03</internalNodes>
      <leafValues>
        2.8208464384078979e-01 -5.1071301102638245e-02</leafValues></_>
    <_>
      <internalNodes>
        0 -1 8737 -9.4677090644836426e-02</internalNodes>
      <leafValues>
        -5.1408517360687256e-01 2.6397595182061195e-02</leafValues></_>
    <_>
      <internalNodes>
        0 -1 10852 4.6351579949259758e-03</internalNodes>
      <leafValues>
        -8.2657843828201294e-02 1.6785492002964020e-01</leafValues></_>
    <_>
      <internalNodes>
        0 -1 10809 -8.0261388793587685e-03</internalNodes>
      <leafValues>
        1.8954586982727051e-01 -6.2591880559921265e-02</leafValues></_>
    <_>
      <internalNodes>
        0 -1 8936 2.1935091353952885e-03</internalNodes>
      <leafValues>
        5.4353393614292145e-02 -2.3859415948390961e-01</leafValues></_>
    <_>
      <internalNodes>
        0 -1 8936 -1.1483852285891771e-03</internalNodes>
      <leafValues>
        -1.5950986742973328e-01 8.6951427161693573e-02</leafValues></_>
    <_>
      <internalNodes>
        0 -1 3747 2.4048588238656521e-03</internalNodes>
      <leafValues>
        8.1907518208026886e-02 -1.5284791588783264e-01</leafValues></_>
    <_>
      <internalNodes>
        0 -1 7412 -4.4687587022781372e-01</internalNodes>
      <leafValues>
        -5.0905460119247437e-01 2.3469844833016396e-02</leafValues></_>
    <_>
      <internalNodes>
        0 -1 3607 -1.6877576708793640e-02</internalNodes>
      <leafValues>
        1.6243135929107666e-01 -8.2677774131298065e-02</leafValues></_>
    <_>
      <internalNodes>
        0 -1 11031 -3.1732328236103058e-02</internalNodes>
      <leafValues>
        -6.7719465494155884e-01 2.0376581698656082e-02</leafValues></_>
    <_>
      <internalNodes>
        0 -1 7106 -2.2515580058097839e-03</internalNodes>
      <leafValues>
        -2.2973132133483887e-01 5.2481789141893387e-02</leafValues></_>
    <_>
      <internalNodes>
        0 -1 5702 -6.6119129769504070e-04</internalNodes>
      <leafValues>
        1.2234976887702942e-01 -1.2484732270240784e-01</leafValues></_>
    <_>
      <internalNodes>
        0 -1 10176 1.2402074411511421e-02</internalNodes>
      <leafValues>
        2.5299146771430969e-02 -5.1582640409469604e-01</leafValues></_>
    <_>
      <internalNodes>
        0 -1 10570 9.6911769360303879e-03</internalNodes>
      <leafValues>
        -8.8834442198276520e-02 1.5238898992538452e-01</leafValues></_>
    <_>
      <internalNodes>
        0 -1 1767 -2.3261268436908722e-01</internalNodes>
      <leafValues>
        -5.7099866867065430e-01 2.4667596444487572e-02</leafValues></_>
    <_>
      <internalNodes>
        0 -1 2847 -6.1201288190204650e-05</internalNodes>
      <leafValues>
        1.1686280369758606e-01 -1.1710734665393829e-01</leafValues></_>
    <_>
      <internalNodes>
        0 -1 2828 1.1035554111003876e-02</internalNodes>
      <leafValues>
        -6.0380797833204269e-02 2.6852920651435852e-01</leafValues></_>
    <_>
      <internalNodes>
        0 -1 4344 1.0500492155551910e-01</internalNodes>
      <leafValues>
        1.6613250598311424e-02 -9.0255564451217651e-01</leafValues></_>
    <_>
      <internalNodes>
        0 -1 10989 -3.5311788320541382e-02</internalNodes>
      <leafValues>
        -6.9986063241958618e-01 1.4662344940006733e-02</leafValues></_>
    <_>
      <internalNodes>
        0 -1 101 5.0920560956001282e-02</internalNodes>
      <leafValues>
        1.4429424889385700e-02 -7.3214328289031982e-01</leafValues></_>
    <_>
      <internalNodes>
        0 -1 2142 6.4654732123017311e-03</internalNodes>
      <leafValues>
        2.3141259327530861e-02 -4.3665012717247009e-01</leafValues></_>
    <_>
      <internalNodes>
        0 -1 2084 1.4489348977804184e-02</internalNodes>
      <leafValues>
        -5.1844943314790726e-02 2.3665897548198700e-01</leafValues></_>
    <_>
      <internalNodes>
        0 -1 5681 1.4220689190551639e-03</internalNodes>
      <leafValues>
        8.4664203226566315e-02 -1.5479148924350739e-01</leafValues></_>
    <_>
      <internalNodes>
        0 -1 8050 -6.1120088503230363e-05</internalNodes>
      <leafValues>
        1.0805585235357285e-01 -1.0396718978881836e-01</leafValues></_>
    <_>
      <internalNodes>
        0 -1 6830 -1.9830550998449326e-02</internalNodes>
      <leafValues>
        -2.4991175532341003e-01 5.8035250753164291e-02</leafValues></_>
    <_>
      <internalNodes>
        0 -1 5036 -2.2204908728599548e-01</internalNodes>
      <leafValues>
        7.2811681032180786e-01 -2.2389600053429604e-02</leafValues></_>
    <_>
      <internalNodes>
        0 -1 2065 -1.7511801794171333e-02</internalNodes>
      <leafValues>
        -4.9071258306503296e-01 2.7240214869379997e-02</leafValues></_>
    <_>
      <internalNodes>
        0 -1 6354 -7.5628072954714298e-04</internalNodes>
      <leafValues>
        -1.6843245923519135e-01 6.8991430103778839e-02</leafValues></_>
    <_>
      <internalNodes>
        0 -1 4807 -2.5563340168446302e-03</internalNodes>
      <leafValues>
        -2.6439449191093445e-01 5.6209892034530640e-02</leafValues></_>
    <_>
      <internalNodes>
        0 -1 9111 -6.0841783881187439e-02</internalNodes>
      <leafValues>
        5.3840303421020508e-01 -2.5896729901432991e-02</leafValues></_>
    <_>
      <internalNodes>
        0 -1 6237 3.0199293978512287e-03</internalNodes>
      <leafValues>
        1.0349987447261810e-01 -1.3168573379516602e-01</leafValues></_>
    <_>
      <internalNodes>
        0 -1 7975 -1.4096442610025406e-02</internalNodes>
      <leafValues>
        2.0370867848396301e-01 -7.3053523898124695e-02</leafValues></_>
    <_>
      <internalNodes>
        0 -1 6954 -2.0563947036862373e-03</internalNodes>
      <leafValues>
        -2.3954530060291290e-01 6.6707894206047058e-02</leafValues></_>
    <_>
      <internalNodes>
        0 -1 9779 -8.5317976772785187e-03</internalNodes>
      <leafValues>
        1.5899862349033356e-01 -7.6140515506267548e-02</leafValues></_>
    <_>
      <internalNodes>
        0 -1 6357 4.5356452465057373e-03</internalNodes>
      <leafValues>
        -6.6519021987915039e-02 1.9129525125026703e-01</leafValues></_>
    <_>
      <internalNodes>
        0 -1 1146 1.0544355213642120e-01</internalNodes>
      <leafValues>
        1.4041534624993801e-02 -1.</leafValues></_>
    <_>
      <internalNodes>
        0 -1 7437 5.6487649999326095e-05</internalNodes>
      <leafValues>
        -1.1756350100040436e-01 1.0013920068740845e-01</leafValues></_>
    <_>
      <internalNodes>
        0 -1 5701 -3.2924497500061989e-03</internalNodes>
      <leafValues>
        -1.5155230462551117e-01 7.9640544950962067e-02</leafValues></_></weakClassifiers></stage8>
</opencv_storage>
