<?xml version="1.0"?>
<opencv_storage>
<stage6>
  <maxWeakCount>62</maxWeakCount>
  <stageThreshold>-1.5683840513229370e+00</stageThreshold>
  <weakClassifiers>
    <_>
      <internalNodes>
        0 -1 7240 -8.0548770725727081e-02</internalNodes>
      <leafValues>
        -5.5084747076034546e-01 -7.7868854999542236e-01</leafValues></_>
    <_>
      <internalNodes>
        0 -1 5198 -3.3239588141441345e-02</internalNodes>
      <leafValues>
        2.1619610488414764e-01 -2.2290325164794922e-01</leafValues></_>
    <_>
      <internalNodes>
        0 -1 5076 -3.8922123610973358e-02</internalNodes>
      <leafValues>
        3.5329583287239075e-01 -7.7354878187179565e-02</leafValues></_>
    <_>
      <internalNodes>
        0 -1 1659 -4.0634300559759140e-02</internalNodes>
      <leafValues>
        3.4766164422035217e-01 -7.2717703878879547e-02</leafValues></_>
    <_>
      <internalNodes>
        0 -1 8399 -2.5469593703746796e-02</internalNodes>
      <leafValues>
        2.3028743267059326e-01 -8.0751888453960419e-02</leafValues></_>
    <_>
      <internalNodes>
        0 -1 7102 -9.6919853240251541e-03</internalNodes>
      <leafValues>
        2.1325278282165527e-01 -1.0542559623718262e-01</leafValues></_>
    <_>
      <internalNodes>
        0 -1 7244 4.0981944650411606e-02</internalNodes>
      <leafValues>
        -8.8128082454204559e-02 2.1966278553009033e-01</leafValues></_>
    <_>
      <internalNodes>
        0 -1 2334 -5.0683662295341492e-02</internalNodes>
      <leafValues>
        2.6580664515495300e-01 -7.4471697211265564e-02</leafValues></_>
    <_>
      <internalNodes>
        0 -1 11178 4.5873057097196579e-03</internalNodes>
      <leafValues>
        1.5967482328414917e-01 -1.4674308896064758e-01</leafValues></_>
    <_>
      <internalNodes>
        0 -1 6061 -1.2783942744135857e-02</internalNodes>
      <leafValues>
        2.2836232185363770e-01 -1.0458207130432129e-01</leafValues></_>
    <_>
      <internalNodes>
        0 -1 9353 -2.2302144207060337e-03</internalNodes>
      <leafValues>
        -2.5475662946701050e-01 9.9594101309776306e-02</leafValues></_>
    <_>
      <internalNodes>
        0 -1 1390 -5.2212230861186981e-02</internalNodes>
      <leafValues>
        4.7279515862464905e-01 -5.2113156765699387e-02</leafValues></_>
    <_>
      <internalNodes>
        0 -1 3630 1.7490413738414645e-03</internalNodes>
      <leafValues>
        1.0849903523921967e-01 -1.8400372564792633e-01</leafValues></_>
    <_>
      <internalNodes>
        0 -1 156 -1.4829394221305847e-01</internalNodes>
      <leafValues>
        -4.7809076309204102e-01 4.9734033644199371e-02</leafValues></_>
    <_>
      <internalNodes>
        0 -1 6613 3.7411008961498737e-03</internalNodes>
      <leafValues>
        9.2368274927139282e-02 -2.1138076484203339e-01</leafValues></_>
    <_>
      <internalNodes>
        0 -1 780 9.2121008783578873e-03</internalNodes>
      <leafValues>
        -8.8928379118442535e-02 1.9304521381855011e-01</leafValues></_>
    <_>
      <internalNodes>
        0 -1 9361 1.6491858288645744e-02</internalNodes>
      <leafValues>
        3.3910416066646576e-02 -5.9458267688751221e-01</leafValues></_>
    <_>
      <internalNodes>
        0 -1 10452 8.7241325527429581e-03</internalNodes>
      <leafValues>
        -6.2718994915485382e-02 3.3304697275161743e-01</leafValues></_>
    <_>
      <internalNodes>
        0 -1 11203 1.1359625495970249e-02</internalNodes>
      <leafValues>
        3.3210240304470062e-02 -5.0626200437545776e-01</leafValues></_>
    <_>
      <internalNodes>
        0 -1 6001 -2.3660159111022949e-01</internalNodes>
      <leafValues>
        -7.3477876186370850e-01 1.9476655870676041e-02</leafValues></_>
    <_>
      <internalNodes>
        0 -1 11079 3.2471742015331984e-03</internalNodes>
      <leafValues>
        -8.2855388522148132e-02 2.0094059407711029e-01</leafValues></_>
    <_>
      <internalNodes>
        0 -1 1916 2.3019280284643173e-02</internalNodes>
      <leafValues>
        2.9873471707105637e-02 -5.0772756338119507e-01</leafValues></_>
    <_>
      <internalNodes>
        0 -1 1988 -4.5095965266227722e-02</internalNodes>
      <leafValues>
        2.6651778817176819e-01 -6.6421039402484894e-02</leafValues></_>
    <_>
      <internalNodes>
        0 -1 9239 2.8873361647129059e-02</internalNodes>
      <leafValues>
        -3.7345655262470245e-02 4.0904307365417480e-01</leafValues></_>
    <_>
      <internalNodes>
        0 -1 8268 -2.0575881004333496e-02</internalNodes>
      <leafValues>
        2.2829161584377289e-01 -6.3305668532848358e-02</leafValues></_>
    <_>
      <internalNodes>
        0 -1 9881 -2.3055687546730042e-01</internalNodes>
      <leafValues>
        -6.6194266080856323e-01 2.8641816228628159e-02</leafValues></_>
    <_>
      <internalNodes>
        0 -1 2115 -5.8802121202461421e-05</internalNodes>
      <leafValues>
        9.0985372662544250e-02 -1.7382562160491943e-01</leafValues></_>
    <_>
      <internalNodes>
        0 -1 991 -7.5395357608795166e-01</internalNodes>
      <leafValues>
        -4.3966400623321533e-01 3.7280585616827011e-02</leafValues></_>
    <_>
      <internalNodes>
        0 -1 6714 -2.9986980371177197e-03</internalNodes>
      <leafValues>
        -2.2198715806007385e-01 7.3102131485939026e-02</leafValues></_>
    <_>
      <internalNodes>
        0 -1 9348 3.3338079228997231e-03</internalNodes>
      <leafValues>
        4.2181618511676788e-02 -3.3435323834419250e-01</leafValues></_>
    <_>
      <internalNodes>
        0 -1 1192 9.1940928250551224e-03</internalNodes>
      <leafValues>
        -6.6937327384948730e-02 2.4488075077533722e-01</leafValues></_>
    <_>
      <internalNodes>
        0 -1 1372 -3.5448344424366951e-03</internalNodes>
      <leafValues>
        1.8453459441661835e-01 -8.3024695515632629e-02</leafValues></_>
    <_>
      <internalNodes>
        0 -1 4822 4.9135452136397362e-03</internalNodes>
      <leafValues>
        9.4258673489093781e-02 -1.7718775570392609e-01</leafValues></_>
    <_>
      <internalNodes>
        0 -1 4212 -1.4319363050162792e-02</internalNodes>
      <leafValues>
        1.8223576247692108e-01 -8.2963012158870697e-02</leafValues></_>
    <_>
      <internalNodes>
        0 -1 4023 -4.4187281280755997e-02</internalNodes>
      <leafValues>
        2.9147380590438843e-01 -5.1164008677005768e-02</leafValues></_>
    <_>
      <internalNodes>
        0 -1 7498 -1.1692242324352264e-01</internalNodes>
      <leafValues>
        2.2519566118717194e-01 -7.7654041349887848e-02</leafValues></_>
    <_>
      <internalNodes>
        0 -1 7042 -8.2777738571166992e-03</internalNodes>
      <leafValues>
        1.6977934539318085e-01 -9.5907382667064667e-02</leafValues></_>
    <_>
      <internalNodes>
        0 -1 7162 8.0548990517854691e-03</internalNodes>
      <leafValues>
        -6.5430663526058197e-02 2.3787902295589447e-01</leafValues></_>
    <_>
      <internalNodes>
        0 -1 5699 -1.1725623335223645e-04</internalNodes>
      <leafValues>
        1.2244957685470581e-01 -1.2653747200965881e-01</leafValues></_>
    <_>
      <internalNodes>
        0 -1 1426 4.5842835679650307e-03</internalNodes>
      <leafValues>
        -1.5442761778831482e-01 1.1163157969713211e-01</leafValues></_>
    <_>
      <internalNodes>
        0 -1 3219 1.5460637398064137e-02</internalNodes>
      <leafValues>
        7.8498318791389465e-02 -1.7285044491291046e-01</leafValues></_>
    <_>
      <internalNodes>
        0 -1 2082 3.6231640726327896e-02</internalNodes>
      <leafValues>
        -5.9001259505748749e-02 2.7301001548767090e-01</leafValues></_>
    <_>
      <internalNodes>
        0 -1 2148 -4.0544450283050537e-02</internalNodes>
      <leafValues>
        -3.7104433774948120e-01 3.7950355559587479e-02</leafValues></_>
    <_>
      <internalNodes>
        0 -1 1993 -1.8675301223993301e-02</internalNodes>
      <leafValues>
        -7.0116305351257324e-01 1.7640104517340660e-02</leafValues></_>
    <_>
      <internalNodes>
        0 -1 2164 6.8372595123946667e-03</internalNodes>
      <leafValues>
        -9.7441762685775757e-02 1.4431563019752502e-01</leafValues></_>
    <_>
      <internalNodes>
        0 -1 4041 5.0782546401023865e-02</internalNodes>
      <leafValues>
        2.2566286846995354e-02 -6.5019410848617554e-01</leafValues></_>
    <_>
      <internalNodes>
        0 -1 4622 3.0898231267929077e-01</internalNodes>
      <leafValues>
        1.5689920634031296e-02 -7.4916332960128784e-01</leafValues></_>
    <_>
      <internalNodes>
        0 -1 6055 6.5252874046564102e-03</internalNodes>
      <leafValues>
        2.8077013790607452e-02 -4.2210569977760315e-01</leafValues></_>
    <_>
      <internalNodes>
        0 -1 4959 -1.2001484632492065e-02</internalNodes>
      <leafValues>
        5.3846555948257446e-01 -3.1637009233236313e-02</leafValues></_>
    <_>
      <internalNodes>
        0 -1 9951 1.7806924879550934e-02</internalNodes>
      <leafValues>
        1.7827562987804413e-02 -8.9172369241714478e-01</leafValues></_>
    <_>
      <internalNodes>
        0 -1 10648 1.4736919663846493e-02</internalNodes>
      <leafValues>
        -7.5873553752899170e-02 1.9815494120121002e-01</leafValues></_>
    <_>
      <internalNodes>
        0 -1 11202 -1.9531308207660913e-03</internalNodes>
      <leafValues>
        -1.9813494384288788e-01 7.3711432516574860e-02</leafValues></_>
    <_>
      <internalNodes>
        0 -1 10856 6.4651584252715111e-03</internalNodes>
      <leafValues>
        -9.3113496899604797e-02 1.5088726580142975e-01</leafValues></_>
    <_>
      <internalNodes>
        0 -1 10039 1.5402248501777649e-01</internalNodes>
      <leafValues>
        1.5257143415510654e-02 -8.9651876688003540e-01</leafValues></_>
    <_>
      <internalNodes>
        0 -1 2150 5.7539513363735750e-05</internalNodes>
      <leafValues>
        -1.2154603004455566e-01 1.0686933994293213e-01</leafValues></_>
    <_>
      <internalNodes>
        0 -1 890 -5.3313471376895905e-02</internalNodes>
      <leafValues>
        3.0335852503776550e-01 -4.8056390136480331e-02</leafValues></_>
    <_>
      <internalNodes>
        0 -1 4026 3.4714885987341404e-03</internalNodes>
      <leafValues>
        4.6493519097566605e-02 -3.0840715765953064e-01</leafValues></_>
    <_>
      <internalNodes>
        0 -1 4002 5.9455916925799102e-05</internalNodes>
      <leafValues>
        -1.1730536818504333e-01 1.3585250079631805e-01</leafValues></_>
    <_>
      <internalNodes>
        0 -1 10957 -5.4165376350283623e-03</internalNodes>
      <leafValues>
        2.8958988189697266e-01 -4.5638628304004669e-02</leafValues></_>
    <_>
      <internalNodes>
        0 -1 11139 2.7211531996726990e-02</internalNodes>
      <leafValues>
        2.2589705884456635e-02 -6.4263153076171875e-01</leafValues></_>
    <_>
      <internalNodes>
        0 -1 7718 1.2148199602961540e-03</internalNodes>
      <leafValues>
        8.7202079594135284e-02 -1.5024060010910034e-01</leafValues></_>
    <_>
      <internalNodes>
        0 -1 2441 1.7976142466068268e-02</internalNodes>
      <leafValues>
        -3.7607491016387939e-02 3.8001868128776550e-01</leafValues></_></weakClassifiers></stage6>
</opencv_storage>
