<?xml version="1.0"?>
<opencv_storage>
<stage1>
  <maxWeakCount>40</maxWeakCount>
  <stageThreshold>-1.8186644315719604e+00</stageThreshold>
  <weakClassifiers>
    <_>
      <internalNodes>
        0 -1 5842 1.9650335609912872e-01</internalNodes>
      <leafValues>
        -7.2470468282699585e-01 -1.3615024089813232e-01</leafValues></_>
    <_>
      <internalNodes>
        0 -1 9689 -1.3458862900733948e-02</internalNodes>
      <leafValues>
        2.3103497922420502e-01 -3.1097993254661560e-01</leafValues></_>
    <_>
      <internalNodes>
        0 -1 6582 2.4945533275604248e-01</internalNodes>
      <leafValues>
        -9.4098091125488281e-02 4.9734488129615784e-01</leafValues></_>
    <_>
      <internalNodes>
        0 -1 11204 6.3128609326668084e-05</internalNodes>
      <leafValues>
        -2.3015177249908447e-01 1.8736378848552704e-01</leafValues></_>
    <_>
      <internalNodes>
        0 -1 5897 -9.8466724157333374e-03</internalNodes>
      <leafValues>
        -5.0591671466827393e-01 6.8208254873752594e-02</leafValues></_>
    <_>
      <internalNodes>
        0 -1 531 -9.3819212913513184e-01</internalNodes>
      <leafValues>
        -7.3981988430023193e-01 7.9148083925247192e-02</leafValues></_>
    <_>
      <internalNodes>
        0 -1 6053 2.7452462818473577e-03</internalNodes>
      <leafValues>
        8.1484727561473846e-02 -4.4620937108993530e-01</leafValues></_>
    <_>
      <internalNodes>
        0 -1 3782 -6.9223925471305847e-02</internalNodes>
      <leafValues>
        -3.9821150898933411e-01 1.0114010423421860e-01</leafValues></_>
    <_>
      <internalNodes>
        0 -1 2149 3.3145651221275330e-02</internalNodes>
      <leafValues>
        7.3734045028686523e-02 -5.3085017204284668e-01</leafValues></_>
    <_>
      <internalNodes>
        0 -1 1808 2.9413226991891861e-02</internalNodes>
      <leafValues>
        7.8152962028980255e-02 -5.4080426692962646e-01</leafValues></_>
    <_>
      <internalNodes>
        0 -1 1187 -7.0494348183274269e-03</internalNodes>
      <leafValues>
        3.6678963899612427e-01 -1.0199033468961716e-01</leafValues></_>
    <_>
      <internalNodes>
        0 -1 11108 6.4233157900162041e-05</internalNodes>
      <leafValues>
        -1.9377787411212921e-01 1.7370952665805817e-01</leafValues></_>
    <_>
      <internalNodes>
        0 -1 10670 1.0701842606067657e-02</internalNodes>
      <leafValues>
        -9.1661088168621063e-02 3.6492744088172913e-01</leafValues></_>
    <_>
      <internalNodes>
        0 -1 8421 -7.6357806101441383e-03</internalNodes>
      <leafValues>
        -3.2709050178527832e-01 1.0349657386541367e-01</leafValues></_>
    <_>
      <internalNodes>
        0 -1 1192 8.2759857177734375e-03</internalNodes>
      <leafValues>
        -9.7674474120140076e-02 3.2281246781349182e-01</leafValues></_>
    <_>
      <internalNodes>
        0 -1 7585 -3.2287370413541794e-03</internalNodes>
      <leafValues>
        -3.4647446870803833e-01 9.6139334142208099e-02</leafValues></_>
    <_>
      <internalNodes>
        0 -1 8142 -1.9073996692895889e-02</internalNodes>
      <leafValues>
        2.9267802834510803e-01 -1.0360621660947800e-01</leafValues></_>
    <_>
      <internalNodes>
        0 -1 5696 -3.5736560821533203e-02</internalNodes>
      <leafValues>
        4.1086953878402710e-01 -8.3840057253837585e-02</leafValues></_>
    <_>
      <internalNodes>
        0 -1 1547 -8.7394021451473236e-02</internalNodes>
      <leafValues>
        -9.7755366563796997e-01 3.2111406326293945e-02</leafValues></_>
    <_>
      <internalNodes>
        0 -1 9349 1.4879099326208234e-03</internalNodes>
      <leafValues>
        9.0247839689254761e-02 -2.8142291307449341e-01</leafValues></_>
    <_>
      <internalNodes>
        0 -1 6761 -1.6756746917963028e-02</internalNodes>
      <leafValues>
        3.2185813784599304e-01 -9.2557929456233978e-02</leafValues></_>
    <_>
      <internalNodes>
        0 -1 4026 -5.9455916925799102e-05</internalNodes>
      <leafValues>
        1.5620622038841248e-01 -1.6841433942317963e-01</leafValues></_>
    <_>
      <internalNodes>
        0 -1 10452 7.5684078037738800e-03</internalNodes>
      <leafValues>
        -7.2451494634151459e-02 3.8847389817237854e-01</leafValues></_>
    <_>
      <internalNodes>
        0 -1 10462 -7.2547821328043938e-03</internalNodes>
      <leafValues>
        2.5063174962997437e-01 -1.2414678931236267e-01</leafValues></_>
    <_>
      <internalNodes>
        0 -1 53 -1.3891301117837429e-02</internalNodes>
      <leafValues>
        3.9893758296966553e-01 -6.0802899301052094e-02</leafValues></_>
    <_>
      <internalNodes>
        0 -1 5705 -2.1117567084729671e-03</internalNodes>
      <leafValues>
        -3.1454005837440491e-01 8.5333317518234253e-02</leafValues></_>
    <_>
      <internalNodes>
        0 -1 107 2.8613345697522163e-02</internalNodes>
      <leafValues>
        -1.0761902481317520e-01 2.9489994049072266e-01</leafValues></_>
    <_>
      <internalNodes>
        0 -1 7112 4.5165698975324631e-03</internalNodes>
      <leafValues>
        5.6990448385477066e-02 -4.5033544301986694e-01</leafValues></_>
    <_>
      <internalNodes>
        0 -1 7113 4.5954342931509018e-03</internalNodes>
      <leafValues>
        -9.1733165085315704e-02 3.0002829432487488e-01</leafValues></_>
    <_>
      <internalNodes>
        0 -1 7112 -3.2004849053919315e-03</internalNodes>
      <leafValues>
        -3.7087357044219971e-01 7.2106964886188507e-02</leafValues></_>
    <_>
      <internalNodes>
        0 -1 808 9.3939062207937241e-03</internalNodes>
      <leafValues>
        -1.0537414997816086e-01 2.3223121464252472e-01</leafValues></_>
    <_>
      <internalNodes>
        0 -1 10921 -2.1911047399044037e-01</internalNodes>
      <leafValues>
        -8.0903851985931396e-01 2.7343971654772758e-02</leafValues></_>
    <_>
      <internalNodes>
        0 -1 10801 2.1635511517524719e-01</internalNodes>
      <leafValues>
        2.3609880357980728e-02 -8.0799120664596558e-01</leafValues></_>
    <_>
      <internalNodes>
        0 -1 892 -1.1250513605773449e-02</internalNodes>
      <leafValues>
        1.5524730086326599e-01 -1.4792782068252563e-01</leafValues></_>
    <_>
      <internalNodes>
        0 -1 116 -2.6447665691375732e-01</internalNodes>
      <leafValues>
        -6.7805165052413940e-01 4.2405869811773300e-02</leafValues></_>
    <_>
      <internalNodes>
        0 -1 3787 -2.5977995246648788e-02</internalNodes>
      <leafValues>
        3.8433986902236938e-01 -7.0854894816875458e-02</leafValues></_>
    <_>
      <internalNodes>
        0 -1 5239 -5.3367596119642258e-03</internalNodes>
      <leafValues>
        -2.7042439579963684e-01 8.6096689105033875e-02</leafValues></_>
    <_>
      <internalNodes>
        0 -1 5359 2.6150289922952652e-03</internalNodes>
      <leafValues>
        1.1694356799125671e-01 -2.0477962493896484e-01</leafValues></_>
    <_>
      <internalNodes>
        0 -1 10185 2.2644528653472662e-03</internalNodes>
      <leafValues>
        8.4719397127628326e-02 -2.7835395932197571e-01</leafValues></_>
    <_>
      <internalNodes>
        0 -1 1370 -4.7490913420915604e-03</internalNodes>
      <leafValues>
        3.2970765233039856e-01 -7.3827274143695831e-02</leafValues></_></weakClassifiers></stage1>
</opencv_storage>
